0.32370122375053273,-0.03597721605401908,-4.622372374914855e-05
-9.27425717898043e-06,-0.002292245398626279,-4.0987484021030266e-05
0.27846428242408566,-0.34738840256973835,0.1737004839672972
0.03916870231892086,-0.1225045215493089,0.062408327601561626
1.0142134641433413,-0.32716137127752093,0.16451050791859678
0.5606647019678624,-0.1861337918950969,-0.00043077609335779655
0.277230487586976,-0.09117405931616034,0.0006715836934985866
0.0387015098754356,-0.038972652818299806,0.00016325086907315227
0.0267549133978077,-0.051624397410267614,-1.5563134200500715e-05
0.3262548280615233,-0.14753241096026487,-0.12636918086256313
0.371002431968044,-0.17864700855433643,-0.18622839945986283
0.13274669625843646,-0.13212060700467007,0.01363732501736355
0.06555137220041543,-0.0654271287662425,-1.182901288184591e-05
0.15486753017310217,-0.15430191946299154,0.046651690973693455
0.4580077216943769,-0.4512073010205655,0.002793229909123185
0.09252300369827869,-0.09085334965650686,-0.0004804008077991616
0.4694801977005036,-0.4638589427510135,0.0032461441128106847
0.3668190627830659,-0.36386745435401274,0.0007962465163118948
0.2312698282028831,-0.22727073916396073,0.00018644129331535535
0.4485642084954588,-0.4449867460178222,-0.0017768601557532604
0.18158134556832065,-0.18087209503575397,-0.0009331456803628359
0.3318117467467357,-0.32828545646215196,0.0018628425551451126
0.14298475037024053,-0.14180888659976618,-0.0002915325062603927
0.10296414145892124,-0.1031040007369466,6.697930135747009e-05
0.5029643075017449,-0.49761440089039216,0.00037339066377642003
0.3141485905241569,-0.31286383175534316,0.0003479962061801137
0.36544373136699143,-0.3647379573271564,0.0006189336193812183
0.34318983922771523,-0.34162694811788713,-0.00046556649961444253
0.15136261248616545,-0.1502213547713755,-0.0009277851566015701
0.1541072106814994,-0.15337320548963917,0.00024076395671249475
0.15711168591220412,-0.15695610829731169,-7.185666638688038e-06
0.36247472294912536,-0.35322892702348185,-0.0003505681169418209
0.3510761879194415,-0.3422248735710698,-0.0015075026124478457
0.16587446606705553,-0.16467128029134703,-0.0009342336253254001
0.4487081555467082,-0.4382833418380625,-0.00921720149824482
0.4174588709592923,-0.41533688689226655,-0.0003484957271560421
0.06794391628325895,-0.17312134665488924,0.031889250788158074
0.1310812304387046,-0.36607557482462205,0.08555689035821545
0.06070641417304681,-0.20268883632409632,0.04051865870140814
42.39553030120973,-142.2992998473752,28.430640309335672
0.048482909025811136,-0.16139064775716766,0.032281384592046124
0.021747642026273547,-0.07202028978856581,0.014473841351662908
0.10026608256666035,-0.33236929449000213,0.00015790864211193313
0.03897641519834184,-0.12979896910873553,1.2578069013227923e-05
0.12994131656480365,-0.43265965530541023
0.47320217081610005,-0.4723613089241913
0.26413561930265594,-0.2633906108058416
0.21849327673936877,-0.2167019287309703
0.5898385074265863,-0.5373755155737809
1.6478692707495746,-1.6368507498350164
1.2735674575137232,-1.2794694043825012
0.5132546712091999,-0.4870775064355833
0.7957338058256411,-0.6755150782603668
5.2165031820664955,-5.283632932840716
2.4231528941464617,-2.428510035669091
0.7581227177671755,-0.7614077795665728
0.26925230798909533,-0.26963528713137175
0.8375830580134026,-0.8265035872826638
1.2130482751190121,-1.2077984868617127
